       33.394127      -117.74963     -0.31025314       0
       33.376135      -117.75479     -0.28261900       1
       33.353859      -117.76117     -0.29875278       2
       33.331581      -117.76755     -0.31726885       3
       33.309307      -117.77393     -0.28187656       4
       33.287036      -117.78031     -0.25991440       5
       33.264764      -117.78669     -0.25786018       6
       33.242492      -117.79306     -0.26177311       7
       33.220215      -117.79943     -0.27263021       8
       33.197942      -117.80580     -0.25308323       9
       33.176521      -117.81192     -0.25050926      10
       33.154240      -117.81828     -0.22045517      11
       33.131963      -117.82464     -0.24450111      12
       33.109686      -117.83100     -0.21993685      13
       33.087409      -117.83736     -0.21067619      14
       33.065134      -117.84371     -0.21531153      15
       33.043714      -117.84981     -0.19830799      16
       33.021438      -117.85616     -0.21084690      17
       33.008586      -117.85982     -0.20275593      18
       32.997447      -117.86299     -0.19124508      19
       32.976883      -117.86884     -0.17161560      20
       32.954603      -117.87518     -0.20068979      21
       32.933186      -117.88128     -0.22577333      22
       32.910909      -117.88762     -0.20150518      23
       32.888631      -117.89396     -0.18726492      24
       32.866354      -117.90029     -0.20135880      25
       32.844073      -117.90661     -0.20636797      26
       32.822648      -117.91269     -0.17654848      27
       32.800363      -117.91902     -0.18689013      28
       32.778076      -117.92534     -0.20533371      29
       32.755796      -117.93165     -0.19501114      30
       32.734369      -117.93772     -0.18504858      31
       32.712087      -117.94403     -0.19914150      32
       32.689802      -117.95034     -0.17678356      33
       32.667517      -117.95664     -0.18298006      34
       32.646093      -117.96271     -0.18025064      35
       32.623811      -117.96901     -0.16563797      36
       32.601527      -117.97531     -0.20414305      37
       32.580099      -117.98136     -0.19366550      38
       32.562956      -117.98620     -0.17942047      39
       32.551813      -117.98935     -0.18457270      40
       32.535526      -117.99394     -0.18955612      41
       32.513239      -118.00023     -0.19279909      42
       32.491811      -118.00627     -0.17633200      43
       32.469523      -118.01255     -0.16825390      44
       32.447236      -118.01883     -0.20358753      45
       32.425811      -118.02486     -0.19363689      46
       32.403523      -118.03114     -0.20410252      47
       32.381241      -118.03742     -0.16447353      48
       32.359814      -118.04346     -0.20021248      49
       32.337525      -118.04973     -0.19908476      50
       32.315238      -118.05600     -0.21148300      51
       32.292948      -118.06226     -0.20370531      52
       32.271516      -118.06828     -0.17854023      53
       32.249227      -118.07454     -0.17802477      54
       32.226936      -118.08080     -0.19651890      55
       32.205507      -118.08681     -0.20328712      56
       32.183220      -118.09307     -0.16215134      57
       32.160926      -118.09932     -0.21177530      58
       32.139498      -118.10532     -0.19406080      59
       32.124925      -118.10940     -0.17076445      60
       32.113779      -118.11252     -0.18974590      61
       32.094917      -118.11780     -0.18872118      62
       32.073486      -118.12381     -0.16779423      63
       32.051197      -118.13005     -0.18564701      64
       32.028908      -118.13630     -0.17005157      65
       32.007477      -118.14229     -0.18666887      66
       31.985185      -118.14852     -0.18564701      67
       31.962893      -118.15475     -0.16922522      68
       31.941455      -118.16073     -0.17743826      69
       31.919161      -118.16696     -0.18091488      70
       31.896871      -118.17318     -0.17975521      71
       31.875434      -118.17917     -0.17066622      72
       31.853140      -118.18538     -0.16431618      73
       31.830842      -118.19160     -0.17169952      74
       31.809402      -118.19756     -0.16294193      75
       31.787107      -118.20377     -0.18232393      76
       31.764812      -118.20998     -0.17959595      77
       31.743374      -118.21595     -0.17787790      78
       31.721075      -118.22215     -0.16448259      79
       31.703066      -118.22716     -0.17598867      80
       31.691917      -118.23026     -0.19812727      81
       31.677341      -118.23431     -0.17805290      82
       31.655045      -118.24050     -0.16963959      83
       31.632750      -118.24668     -0.16294193      84
       31.611312      -118.25264     -0.16687870      85
       31.589016      -118.25883     -0.17925215      86
       31.566723      -118.26502     -0.16036654      87
       31.545281      -118.27097     -0.17667580      88
       31.522986      -118.27716     -0.18869686      89
       31.500685      -118.28334     -0.18371677      90
       31.479241      -118.28927     -0.20447922      91
       31.456941      -118.29544     -0.20139265      92
       31.434640      -118.30162     -0.19779158      93
       31.413202      -118.30755     -0.18559599      94
       31.390904      -118.31372     -0.18937826      95
       31.368601      -118.31989     -0.18816853      96
       31.347159      -118.32582     -0.19246531      97
       31.324860      -118.33198     -0.19022274      98
       31.302562      -118.33814     -0.18353796      99
       31.275979      -118.34548     -0.18592453     100
       31.287128      -118.34240     -0.18971395     101
       31.258824      -118.35022     -0.17512465     102
       31.236525      -118.35637     -0.16740465     103
       31.214223      -118.36253     -0.18798065     104
       31.192781      -118.36844     -0.20031500     105
       31.170479      -118.37458     -0.17648172     106
       31.148178      -118.38073     -0.17424059     107
       31.125874      -118.38687     -0.18522310     108
       31.104428      -118.39277     -0.14455843     109
       31.082125      -118.39891     -0.15142727     110
       31.059820      -118.40504     -0.14937162     111
       31.037519      -118.41117     -0.15572453     112
       31.016072      -118.41707     -0.18810558     113
       31.003203      -118.42060     -0.16666079     114
